<?xml version="1.0"?>
<opencv_storage>
<stage7>
  <maxWeakCount>13</maxWeakCount>
  <stageThreshold>-1.2401894330978394e+00</stageThreshold>
  <weakClassifiers>
    <_>
      <internalNodes>
        0 -1 23923 9.0173939242959023e-03</internalNodes>
      <leafValues>
        -4.1432583332061768e-01 5.3902626037597656e-01</leafValues></_>
    <_>
      <internalNodes>
        0 -1 117709 -4.9802829744294286e-04</internalNodes>
      <leafValues>
        -5.2048891782760620e-01 3.3330014348030090e-01</leafValues></_>
    <_>
      <internalNodes>
        0 -1 135431 3.3037282992154360e-04</internalNodes>
      <leafValues>
        -4.8086708784103394e-01 3.4061259031295776e-01</leafValues></_>
    <_>
      <internalNodes>
        0 -1 29158 9.1252475976943970e-03</internalNodes>
      <leafValues>
        -3.7620627880096436e-01 3.6492249369621277e-01</leafValues></_>
    <_>
      <internalNodes>
        0 -1 130803 -9.3075295444577932e-04</internalNodes>
      <leafValues>
        2.7256745100021362e-01 -4.6716290712356567e-01</leafValues></_>
    <_>
      <internalNodes>
        0 -1 133634 3.0620640609413385e-04</internalNodes>
      <leafValues>
        -8.0160868167877197e-01 1.4984884858131409e-01</leafValues></_>
    <_>
      <internalNodes>
        0 -1 116946 -3.2998759706970304e-05</internalNodes>
      <leafValues>
        1.6479152441024780e-01 -7.3035365343093872e-01</leafValues></_>
    <_>
      <internalNodes>
        0 -1 108231 1.8344221170991659e-03</internalNodes>
      <leafValues>
        -5.4690247774124146e-01 1.6056421399116516e-01</leafValues></_>
    <_>
      <internalNodes>
        0 -1 116948 1.3485140698321629e-05</internalNodes>
      <leafValues>
        -7.0757716894149780e-01 1.6383942961692810e-01</leafValues></_>
    <_>
      <internalNodes>
        0 -1 162609 1.5982009936124086e-03</internalNodes>
      <leafValues>
        -2.6700061559677124e-01 4.3109041452407837e-01</leafValues></_>
    <_>
      <internalNodes>
        0 -1 108642 -1.0963962995447218e-04</internalNodes>
      <leafValues>
        1.8231518566608429e-01 -5.7544398307800293e-01</leafValues></_>
    <_>
      <internalNodes>
        0 -1 41135 -7.0238057523965836e-03</internalNodes>
      <leafValues>
        6.3480138778686523e-01 -1.6469247639179230e-01</leafValues></_>
    <_>
      <internalNodes>
        0 -1 43738 1.4313624706119299e-03</internalNodes>
      <leafValues>
        -2.5685727596282959e-01 5.0128793716430664e-01</leafValues></_></weakClassifiers></stage7>
</opencv_storage>
