<?xml version="1.0"?>
<opencv_storage>
<stage6>
  <maxWeakCount>12</maxWeakCount>
  <stageThreshold>-1.0612978935241699e+00</stageThreshold>
  <weakClassifiers>
    <_>
      <internalNodes>
        0 -1 26838 3.2082661986351013e-02</internalNodes>
      <leafValues>
        -2.8090950846672058e-01 6.2218755483627319e-01</leafValues></_>
    <_>
      <internalNodes>
        0 -1 163611 -1.7635643016546965e-03</internalNodes>
      <leafValues>
        4.8516529798507690e-01 -3.6593890190124512e-01</leafValues></_>
    <_>
      <internalNodes>
        0 -1 142339 -2.6968540623784065e-03</internalNodes>
      <leafValues>
        2.4464425444602966e-01 -6.4805161952972412e-01</leafValues></_>
    <_>
      <internalNodes>
        0 -1 64515 2.0301841199398041e-01</internalNodes>
      <leafValues>
        -3.5172221064567566e-01 3.9863935112953186e-01</leafValues></_>
    <_>
      <internalNodes>
        0 -1 106308 2.2415982675738633e-04</internalNodes>
      <leafValues>
        2.2155068814754486e-01 -6.2700337171554565e-01</leafValues></_>
    <_>
      <internalNodes>
        0 -1 134573 -3.5599645343609154e-04</internalNodes>
      <leafValues>
        -8.1486624479293823e-01 1.5174958109855652e-01</leafValues></_>
    <_>
      <internalNodes>
        0 -1 27976 4.3838964775204659e-03</internalNodes>
      <leafValues>
        -2.0920905470848083e-01 7.0368123054504395e-01</leafValues></_>
    <_>
      <internalNodes>
        0 -1 27354 -4.3964497745037079e-03</internalNodes>
      <leafValues>
        5.2703976631164551e-01 -3.0592492222785950e-01</leafValues></_>
    <_>
      <internalNodes>
        0 -1 105787 1.3471319107338786e-05</internalNodes>
      <leafValues>
        -8.5903984308242798e-01 1.8096660077571869e-01</leafValues></_>
    <_>
      <internalNodes>
        0 -1 156498 5.9707267209887505e-03</internalNodes>
      <leafValues>
        1.5535619854927063e-01 -7.3041450977325439e-01</leafValues></_>
    <_>
      <internalNodes>
        0 -1 128672 -9.2422310262918472e-04</internalNodes>
      <leafValues>
        -6.7479920387268066e-01 1.7209263145923615e-01</leafValues></_>
    <_>
      <internalNodes>
        0 -1 99390 1.0325368493795395e-03</internalNodes>
      <leafValues>
        -4.4582521915435791e-01 2.1181750297546387e-01</leafValues></_></weakClassifiers></stage6>
</opencv_storage>
