<?xml version="1.0"?>
<opencv_storage>
<stage1>
  <maxWeakCount>5</maxWeakCount>
  <stageThreshold>-1.0061603784561157e+00</stageThreshold>
  <weakClassifiers>
    <_>
      <internalNodes>
        0 -1 7421 3.7704303860664368e-02</internalNodes>
      <leafValues>
        -6.4763778448104858e-01 7.6970225572586060e-01</leafValues></_>
    <_>
      <internalNodes>
        0 -1 73938 -2.7402281761169434e-02</internalNodes>
      <leafValues>
        6.4542913436889648e-01 -5.6852382421493530e-01</leafValues></_>
    <_>
      <internalNodes>
        0 -1 124386 2.0459212828427553e-03</internalNodes>
      <leafValues>
        -8.5559409856796265e-01 3.9681917428970337e-01</leafValues></_>
    <_>
      <internalNodes>
        0 -1 29161 1.0096222162246704e-02</internalNodes>
      <leafValues>
        -4.4725325703620911e-01 5.8752608299255371e-01</leafValues></_>
    <_>
      <internalNodes>
        0 -1 82881 -1.4036355540156364e-02</internalNodes>
      <leafValues>
        2.9889571666717529e-01 -7.9403644800186157e-01</leafValues></_></weakClassifiers></stage1>
</opencv_storage>
